{
  "architecture": {
    "n_input": 4,
    "n_hidden1": 8,
    "n_hidden2": 4,
    "learning_rate": 0.01
  },
  "weights": {
    "weights_ih1": [
      [
        0.003178012913058158,
        -0.2888438414153876,
        -0.06524232835904543,
        0.49379636287552264
      ],
      [
        -0.10773534471630912,
        -1.0572714219824741,
        0.21630438333137114,
        -0.19762719396109607
      ],
      [
        -0.1014422609127104,
        -0.0455063318390726,
        0.1516292734128192,
        0.800284673615095
      ],
      [
        0.4482501428730093,
        0.0782719137795532,
        -0.5293526454161641,
        -0.721149325391009
      ],
      [
        0.19058198357884926,
        1.1492850889567918,
        0.11085677698795549,
        0.016158295597793686
      ],
      [
        0.7047487638407354,
        -1.4699255169029015,
        0.03728581218424237,
        0.4914079305296544
      ],
      [
        0.9164722621481174,
        -0.5152079194178457,
        0.4141793231274424,
        0.35162005125695894
      ],
      [
        0.6231129236833481,
        -0.9060099820965054,
        0.5148811684043892,
        -0.9725947872586713
      ]
    ],
    "bias_h1": [
      -0.19460330906456974,
      -0.037753307743270445,
      -0.1505525355270933,
      -0.016027350851193424,
      0.3805328142028181,
      -0.08010735502128208,
      -0.15480849072074943,
      0.16334764799259793
    ],
    "weights_h1h2": [
      [
        -1.344529991645613,
        -0.3100404745172167,
        -0.3719997844968608,
        0.4445412261191375,
        0.6959543164337676,
        -0.8918996496929393,
        0.32621003073370863,
        -0.5784969431253855
      ],
      [
        0.09121897526142861,
        -0.13593717805157904,
        0.21053490154992696,
        0.3988121470992129,
        -0.03994887576076893,
        0.9571752390360333,
        0.9313795428631736,
        0.3782074159993016
      ],
      [
        -0.310382437136767,
        -0.3586797405285585,
        -0.22151264138592536,
        0.24961587343552305,
        -0.11359764820616894,
        1.182331939502508,
        -0.3916820278031617,
        -0.5492883514458978
      ],
      [
        0.34595148361755645,
        0.7075129279500405,
        0.2582823469164248,
        0.41945935950264307,
        0.9160984270277507,
        -0.28852594420246014,
        -0.8408535000036871,
        -0.3062209140328286
      ]
    ],
    "bias_h2": [
      0.5050734348880643,
      -0.2561606660560878,
      0.023854987877931583,
      0.2946545581824984
    ],
    "weights_ho": [
      1.232884504698747,
      -1.646169460365482,
      -0.0987365406700335,
      0.8451771733045607
    ],
    "bias_o": 0.391461851056766
  },
  "training_info": {
    "best_epoch": 78,
    "best_val_acc": 73.4375
  }
}